0.9985317244792562
 1.384969353272323
 1.104494606153632
 1.4131392707025774
 -0.22748829261222944
 1.6090975551548397
 1.257575875783714
 -0.8955525840510576
 -1.3831467306506386
 0.5108113724994718
 0.028062063518519392
 1.1706826564880841
 0.0015501179234005914
 -1.2606939700742061
 7.746579450422908E-4
 -0.4854886083058715
 -0.2306480201114908
 -0.0015251977472746955
 1.5675689709280336
 0.23284837474725883
 -0.004844382195248109
 1.3389825785611684
 1.3983840162586085
 -0.18672544333770918
 0.9107775597000528
 1.0847034052983027
 0.530550420075228
 0.6740390220539967
 0.024982167190587337
 1.1176064514533945
 0.6750818903610262
 3.6763753377484104E-4
 -4.4431964278921605E-4
 -0.715849881754287
 1.1875244060536132
 0.515264040967078
 0.011058366859284817
 1.3499869398338364
 1.0300141397500477
 1.0789360820931158
 0.9299426503785966
 0.009486796598134447
 -0.0064920154078126156
 -0.03116191476940429
 0.927417099412507
 0.303490995553354
 1.4109978456234389
 9.965961176418626E-4
 0.8166578020014523
 0.012059775737645936
 0.02098741407188319
 1.178074074054681
 1.232436676539491
 0.006243119554475217
 0.13286382320311216
 0.8211977861776153
 0.6096042143477896
 0.2298297522144802
 -0.18682321491315512
 1.2823863332637369
 0.036667620334324524
 -0.17950661502664284
 0.0018838309942744505
 -0.020130951733975985
 1.7830315527886151
 -0.0032800916539375115
 
