0.9567243100673002
 1.371977273334128
 1.2123064804378823
 1.0278620230623514
 0.9841077260676143
 1.571943377301149
 0.037144977139164176
 -0.055000168742621786
 1.541963546512254
 0.6611571433957208
 -0.2445778896163855
 -0.017081202844843532
 0.06288448013880178
 1.283641095295129
 0.009432543838995576
 0.3674077013173467
 0.025559662402548297
 0.0416121332518926
 1.6055949621855516
 0.026737208896183612
 0.02477389716807618
 1.1068692401246918
 0.1305709360829606
 0.06937749913650959
 0.11952259488083222
 -0.007363252408032827
 0.015680713571708027
 0.0386223944244954
 0.027918359676397886
 0.6579505369524365
 -0.10514705970227389
 0.014748998763874241
 -0.00599323021515001
 -0.9105368785839711
 1.0287168012220378
 -0.7752825101705003
 -0.042755755611082163
 1.1207705960031067
 -0.015781693313511834
 0.6673660266372059
 0.006684869528697016
 -0.09880088736348436
 -0.037640419031816114
 0.03191796377108397
 -0.9791757203933302
 -0.10713505453162431
 -1.5167374115389682
 -0.507826501450743
 -0.06343720236143481
 0.03621979098705226
 -0.02751580994490118
 0.0722602387201858
 -0.0069420209131591006
 0.06177747475648762
 -0.011524629387211653
 1.1907487388820552
 -4.414246375227214E-4
 -0.07757773998845069
 0.16235215964466093
 -0.9586661288310223
 0.03536424127914891
 0.03520284929523583
 -0.07645126522582366
 -0.0263703293037542
 1.5814866173454059
 -0.01334760071092286
 
