0.6087005199644862
 0.18234048356974047
 0.004603867209271976
 -0.8452316126589385
 0.9362983781855696
 3.102675508620969
 0.007540593071170356
 0.648049423007411
 0.011541685400245414
 0.005031510617612935
 0.10861257801334279
 0.33463530910803146
 1.1541735044562986
 2.873093494785089
 1.1361858788394814
 0.7109969038305256
 -0.041099409069248485
 -0.09022617394136645
 0.6670666368391436
 0.08259482496265928
 0.7372517904122269
 -0.03499193131899446
 -0.04666991033447225
 -0.528943287026481
 0.8351433874552971
 1.6877411743988486
 -0.06095098789498368
 2.6533933151446
 1.0480955792745905
 -0.2100344649873116
 0.07922034104644152
 0.6721569723426042
 -1.98099296730153
 0.4093676671641789
 1.0640141235398208
 -0.23133564986864139
 -0.585724999961803
 0.5044117764805824
 -0.17706176078893843
 1.3201888080191448
 0.9921057130382602
 0.3080446228911222
 0.9698198202754521
 -0.2459350223856871
 1.002614129308415
 1.1726177942429552
 0.6467513298492091
 -0.002251080636768323
 0.6953071565588933
 -0.2506964441751115
 0.014691945088508821
 0.4752166995253926
 -0.7301471724017401
 -0.17050613193709765
 0.10763788371069166
 -0.006152128875929561
 -0.8726039360781532
 0.5303129464519156
 0.4698160348107409
 -0.7381405475694829
 0.7308959446685976
 0.6207813931781552
 1.7783867797743271
 -0.415276503502009
 1.192754309247034
 0.5257905033286996
 0.9334477583766727
 2.0596735698587216
 0.09054127488831962
 0.017739660965835617
 0.46851998259384586
 -0.020966663914585668
 0.10549856243778022
 0.7705201832953827
 0.5660949102400146
 1.435601243503673
 -1.8631492991393186
 0.4663907227283832
 0.10806914404833594
 -1.903626592761213
 1.2503810806254707
 0.6608187419105097
 0.8167353311059815
 1.6711410619916487
 1.8820304554356628
 0.6815448765069247
 -1.8078171705102062
 0.042239913413956276
 0.5277390519219757
 -0.39352056275316605
 1.1456169158167329
 -0.047165499761509175
 0.7680907507322912
 0.4594587441959286
 -0.5233610932856643
 0.17325327815634872
 -0.13892271868419298
 0.5514463434027945
 0.9106015688293119
 0.48785887736898803
 0.20974036135820795
 
