1.0347049770593335
 1.1282864059741673
 0.6233913144513199
 1.3491433613185344
 0.13861036419798034
 0.15898161954660028
 0.07269799484135703
 0.8188615657951566
 -1.2982847665462667
 0.017741644916285007
 -0.035644745220542284
 1.6112976028864017
 0.15023992983044432
 1.6400475218291608
 -0.04655230412778966
 0.47961784714306566
 -0.9703702290374538
 1.0206090371560297
 -1.7245204379155936
 0.1292823917374724
 0.047003041167898746
 0.24680464198506802
 1.134453660039648
 -0.03273262458043873
 0.6284119672818422
 1.2363161226233363
 -0.7882011819615227
 0.7300439443654314
 -0.05766636285584931
 1.2305807787017162
 0.062069224545336116
 0.12306515200005169
 0.0646258573110729
 -0.7540977355239522
 1.154252298954277
 0.6022290639913885
 -0.09148461897274854
 1.0180619337856216
 0.7561006414213769
 0.6329679324293733
 -0.00978750884650028
 -0.20227053363387842
 0.029247837171656854
 -0.03688785059129361
 0.9337523438443827
 -0.16855830866320742
 1.2973868211382173
 -0.2274887282606889
 -0.6987066500791439
 -0.6026679317608179
 0.16515461728389913
 -0.06398181480883508
 1.385806082584927
 0.025056517900267153
 -0.544220366138592
 0.9686513461670558
 0.054229578419526275
 -0.1016226170723471
 -0.06020566154279458
 -0.3541119205339047
 0.06305349799381571
 -0.029517755990756442
 0.31016413118045505
 0.03854953740000147
 1.5390242355407913
 0.03460820008817882
 
